    L    H    B    M    R    AW   AF    D    Score
[   100    6  -28  -65  -49  -35   26   58   34 ] #1
[    95  -27   40  -59  -65  -11   47   -5   11 ] #1
[    93  -91   52  -47  -86   -8  -84  -24   10 ] #1
[   -56  -38   92    6    0   41   70  -57    8 ] #1
[   -44   74   85   87    0  -73   59   47    6 ] #1
- - - - - - - - - - - - - - - - - - - - - - - - - #1

[    44  -27  -52  -47  -65    8   70    5  329 ] #2
[    56  -38  -28  -50  -69   11   59   47  288 ] #2
[   100    0  -52  -47  -49   11   84   58  218 ] #2
[    95  -91  -28  -47  -65   35   47   58  218 ] #2
[    93  -91  -28  -47  -65   41   47   14  202 ] #2
- - - - - - - - - - - - - - - - - - - - - - - - - #2

[    95  -38  -28  -50  -69   41   84   57  846 ] #3
[    93  -91  -28  -45  -65   11   47   47  361 ] #3
[    93  -91  -52  -47  -65   41   70   58  265 ] #3
[   100  -91  -48  -47  -49    7   47   58  230 ] #3
[    95  -91  -28  -50  -65    8   60   14  139 ] #3
- - - - - - - - - - - - - - - - - - - - - - - - - #3

[    96  -91  -28  -50  -65   11   47   58  719 ] #4
[    95  -91  -28  -50  -69   41   70   57  433 ] #4
[    95  -91  -48  -45  -65    7   55   58  417 ] #4
[    93  -91  -28  -47  -65   11   70   14  268 ] #4
[   100  -91  -28  -47  -65    8   47   57  235 ] #4
- - - - - - - - - - - - - - - - - - - - - - - - - #4

[    94  -61  -16  -56  -67   14  -37   -6   14 ] #1
[   -59  -26   86  -82    8   87    7   -3    9 ] #1
[    57   -5   81   72   14   15   24   69    4 ] #1
[    28   43   36   23  -86  -47   96  -16    2 ] #1
[    25   20   42   14  -81  -36   47  -86    1 ] #1
- - - - - - - - - - - - - - - - - - - - - - - - - #1

[    94  -26  -42  -23  -81   14   24   16  188 ] #2
[    25  -26  -36  -56  -86   15   47    6  188 ] #2
[    40  -26  -16  -23  -67   14   47    3  184 ] #2
[    94   -5  -30  -10  -86   15   96   20  170 ] #2
[    28  -20  -36  -82  -67   14   96   16  119 ] #2
- - - - - - - - - - - - - - - - - - - - - - - - - #2

[    40  -26  -16  -23  -86   14   47   20  430 ] #3
[    78  -20  -36  -23  -81   14   96   16  425 ] #3
[    94  -26  -30  -56  -81   15   47   16  299 ] #3
[    94   -5  -16  -23  -81   15   47   20  278 ] #3
[    94  -35  -30  -10  -81   15   47   16  259 ] #3
- - - - - - - - - - - - - - - - - - - - - - - - - #3

[    94  -35  -16  -23  -81   15   47   16 1500 ] #4
[    40  -35  -30  -23  -81   16   96   16 1012 ] #4
[    40   -5  -16  -23  -81   14   47   16  942 ] #4
[    94  -26  -38  -56  -81   14   47   20  508 ] #4
[    94  -20  -36  -23  -71   15   47   16  454 ] #4
- - - - - - - - - - - - - - - - - - - - - - - - - #4

[    40  -26  -16  -23  -81   15   96   17 1086 ] #5
[    94  -26  -16  -23  -81   15   47   16  579 ] #5
[    94  -20  -36  -23  -81   15   47   20  514 ] #5
[    94  -26  -16  -56  -81   14   47   16  465 ] #5
[    94  -20  -16  -23  -81   14   47   16  447 ] #5
- - - - - - - - - - - - - - - - - - - - - - - - - #5

[    40  -26   -3  -23  -81   15   47   17 27512 ] #6
[    40  -26   -2  -23  -81   14   47   16 9383 ] #6
[    40  -26   -4  -23  -81   14   47   20 8197 ] #6
[    94  -26  -16  -23  -81   14   47   16 2414 ] #6
[    94  -26  -16  -23  -81   15   47   16 2114 ] #6
- - - - - - - - - - - - - - - - - - - - - - - - - #6

[    40  -26   -3  -23  -81   14   47   17 31271 ] #1
[    40  -26   -2  -23  -81   14   47   16 19071 ] #1
[    94  -26   -4  -23  -81   15   47   20 17236 ] #1
[    94  -20   -3   -8  -80   14   47   16 8662 ] #1
[    40  -26   -2  -23  -81   15   47   16 8099 ] #1
- - - - - - - - - - - - - - - - - - - - - - - - - #1
[      40,    -26,     -2,    -23,    -71,     14,     33,     16,  48358, ] #1
[      40,    -26,     -3,    -23,    -73,     14,     47,     11,  19413, ] #1
[      40,    -26,     -3,    -23,    -81,     15,     47,     17,  15838, ] #1
[      40,    -26,     -3,    -23,    -81,     14,     59,     20,     53, ] #1
[      40,    -26,     -4,    -23,    -81,     31,     47,     20,     16, ] #1
- - - - - - - - - - - - - - - - - - - - - - - - - #1

